#include <stdio.h>
#include <math.h>

#define INPUT_DIM 24
#define HIDDEN_DIM 64
#define OUTPUT_DIM 49

float W1[HIDDEN_DIM][INPUT_DIM] = {
    {-0.391399, 0.063635, -0.155879, -0.005180, 0.183365, 0.066534, -0.150173, -0.359348, 0.024633, 0.045303, -0.089264, -0.093184, -0.023187, -0.092238, -0.236542, -0.150102, 0.312711, 0.049577, 0.189928, 0.016674, -0.031274, -0.428431, -0.037383, 0.152701},
    {0.035322, -0.050941, -0.072545, -0.050453, -0.092359, -0.137196, 0.123598, 0.008054, -0.078870, -0.200785, -0.086660, -0.412985, -0.102296, -0.208479, -0.377101, 0.159280, -0.058268, -0.324188, 0.044231, -0.135745, 0.148132, -0.163535, -0.004291, -0.068288},
    {0.050331, 0.101468, 0.022420, -0.292474, 0.055962, -0.057718, -0.007949, 0.054281, -0.266367, -0.123969, -0.170345, -0.155527, 0.241885, -0.165495, 0.068959, 0.109299, -0.250711, 0.114424, 0.199453, -0.018407, -0.125564, 0.252890, 0.297549, 0.109064},
    {0.017406, -0.025431, -0.207701, 0.319791, -0.054541, 0.102668, 0.313479, -0.096604, -0.054655, -0.144809, -0.159030, -0.178335, 0.070441, -0.090833, -0.287905, -0.155695, 0.004733, -0.229560, 0.246495, -0.116475, -0.049844, 0.096139, 0.074089, -0.278582},
    {-0.003252, -0.140560, -0.017933, -0.295332, 0.076597, 0.147291, 0.238318, -0.169036, 0.042669, -0.347112, 0.039436, -0.072684, -0.052378, -0.380638, 0.082488, 0.114389, -0.029830, -0.000536, -0.191702, 0.155916, 0.065282, 0.209141, -0.087021, -0.103829},
    {-0.212730, -0.310445, -0.251989, 0.187353, -0.079416, 0.109357, 0.132445, 0.142551, 0.012983, -0.171665, -0.166818, 0.089175, 0.178796, -0.106501, 0.027785, 0.236565, 0.341073, -0.154114, -0.099834, -0.076594, -0.043397, 0.218731, -0.140581, -0.066074},
    {0.025309, 0.009195, -0.062465, 0.066003, 0.064917, 0.117814, 0.122927, 0.035239, 0.187036, -0.082450, -0.035933, -0.333496, 0.365213, 0.041835, 0.184913, 0.162771, 0.056952, 0.159484, 0.319324, -0.233894, 0.113883, -0.044312, 0.119289, -0.303508},
    {-0.005264, 0.307233, 0.079016, -0.111501, -0.210494, 0.028981, 0.042525, 0.050368, -0.227166, -0.314093, -0.036303, 0.163187, -0.049999, 0.187055, 0.131006, -0.359047, -0.048503, 0.145318, 0.261622, -0.080210, 0.008422, 0.197763, 0.037311, 0.125362},
    {-0.264112, 0.034597, -0.077618, 0.186235, -0.099977, 0.151142, 0.130861, -0.064029, -0.174232, -0.179465, 0.024354, -0.494221, 0.161815, 0.013560, 0.003269, 0.085573, -0.149531, 0.002618, -0.305617, 0.037568, -0.003803, -0.321486, -0.157168, 0.052023},
    {-0.088338, 0.291221, 0.116743, 0.121923, 0.072421, 0.142220, -0.056089, 0.122902, -0.207755, -0.197876, -0.211855, -0.303066, -0.172253, -0.182594, -0.068529, 0.011651, -0.016474, -0.083290, -0.075302, 0.338104, 0.129674, -0.061513, -0.160682, -0.228789},
    {-0.041200, -0.163607, -0.099228, 0.007578, 0.279141, -0.053413, -0.354940, -0.148229, -0.024570, 0.102359, -0.147020, 0.008349, 0.131762, 0.081402, -0.066509, 0.172184, 0.260170, 0.101183, -0.059213, -0.061943, -0.068451, -0.036535, -0.105710, -0.031658},
    {0.028545, -0.059666, 0.054534, -0.201387, -0.219094, -0.005967, -0.178410, -0.047316, 0.252515, -0.019803, -0.100627, 0.156135, 0.128563, -0.073781, 0.159582, 0.219433, 0.175947, 0.074222, 0.210897, -0.178392, -0.175535, -0.091901, 0.135084, -0.024228},
    {0.035605, 0.126792, -0.123667, 0.069487, 0.263802, -0.064267, -0.302619, -0.230440, 0.139376, -0.166337, -0.203276, -0.072324, 0.118085, -0.181827, -0.198151, 0.035940, 0.237879, -0.047014, 0.037390, -0.084246, 0.083439, -0.290707, 0.088031, 0.095286},
    {-0.066933, 0.234615, -0.123572, 0.234963, -0.168270, 0.103151, 0.282360, 0.010275, -0.085118, 0.027248, 0.040247, -0.187835, 0.109029, 0.169751, -0.037014, -0.211249, -0.095035, -0.100451, -0.228550, 0.047009, -0.003675, 0.142370, 0.218801, 0.018531},
    {-0.051523, -0.194287, -0.143143, -0.011967, 0.169117, 0.104386, -0.213800, 0.097688, 0.000372, 0.204096, -0.202842, 0.037633, -0.285313, -0.268694, -0.284543, -0.009594, 0.068323, -0.075282, 0.042894, -0.168805, -0.029791, 0.278802, 0.031644, -0.057378},
    {0.211581, 0.135538, -0.001164, -0.034615, 0.215471, 0.082409, -0.294301, 0.117316, 0.078960, -0.230543, -0.235488, 0.029987, 0.173098, 0.026331, 0.090334, 0.049852, 0.204102, -0.051115, 0.072410, -0.195932, 0.074263, 0.087525, -0.053098, 0.008892},
    {-0.204910, 0.176630, -0.027548, -0.093523, -0.005187, 0.023416, 0.217505, 0.039285, 0.112869, -0.271795, -0.235608, -0.248711, 0.194312, 0.038616, -0.127666, 0.122649, -0.419210, -0.221834, -0.095967, -0.010575, -0.211106, 0.077411, -0.175099, -0.084523},
    {-0.118498, -0.400652, -0.157742, -0.181628, 0.156404, 0.135882, 0.141282, -0.219145, -0.063304, -0.076551, 0.111054, 0.097688, 0.092045, 0.117877, -0.295157, 0.135127, 0.166147, -0.061616, -0.028245, 0.147734, -0.140568, 0.040468, -0.161081, 0.088945},
    {-0.119743, 0.199129, -0.099525, 0.025694, -0.066263, -0.216259, 0.497087, -0.049139, 0.009832, 0.134760, -0.047039, -0.132827, 0.247096, -0.113080, -0.032207, -0.172354, -0.125749, -0.255049, -0.354591, 0.097816, -0.043288, -0.178276, 0.041285, -0.003818},
    {0.312275, -0.012816, 0.094032, -0.105943, 0.208962, -0.044830, 0.264114, -0.176712, 0.155429, -0.145123, -0.203665, -0.051413, 0.113652, 0.183724, 0.177868, -0.256487, -0.069871, 0.111530, -0.156428, -0.034062, 0.016483, -0.038810, 0.152357, -0.148653},
    {0.036115, -0.228278, 0.051977, 0.118237, -0.046834, 0.064181, 0.231987, 0.167759, -0.070009, 0.198043, 0.104858, -0.143585, 0.028344, 0.309123, 0.076690, 0.104578, 0.162530, -0.199161, 0.107726, 0.153888, 0.140589, 0.104278, 0.157257, -0.034405},
    {0.240800, 0.080957, -0.032931, 0.155813, 0.058960, 0.045987, 0.091447, 0.087109, 0.106317, -0.062707, 0.177420, 0.277514, 0.139275, -0.110511, -0.390987, 0.080639, -0.243687, 0.012513, 0.246635, -0.036027, -0.152355, 0.214455, -0.177953, 0.047611},
    {0.030405, 0.311013, -0.012885, -0.053771, -0.003409, 0.022803, -0.062327, 0.138675, 0.164015, 0.022120, 0.117794, -0.047810, 0.040080, -0.072124, 0.089978, 0.222652, 0.170031, -0.103867, 0.328174, -0.100325, 0.014897, 0.132961, 0.338753, -0.010316},
    {-0.151682, 0.080965, 0.063458, -0.006624, -0.107325, 0.055551, 0.369692, 0.022184, -0.093673, 0.224252, -0.070269, 0.113669, 0.068695, -0.075460, -0.328231, -0.045055, 0.177380, -0.144476, -0.136439, -0.126583, 0.018356, 0.113486, 0.235445, 0.094044},
    {-0.184637, -0.092990, -0.031192, 0.066152, 0.328351, -0.069652, 0.100108, -0.093784, -0.066553, 0.083999, 0.213200, 0.281878, -0.127401, 0.169986, 0.091803, -0.445126, 0.002576, 0.093584, 0.086818, -0.208941, 0.078893, -0.284506, -0.167635, -0.126124},
    {-0.166923, 0.115246, 0.081743, -0.263404, 0.086726, 0.104305, -0.141698, 0.023717, -0.001294, 0.064398, 0.044971, 0.142787, -0.004991, 0.270720, -0.129293, 0.219098, -0.128732, -0.261913, -0.199341, 0.143819, 0.045979, -0.178823, 0.117385, -0.078832},
    {0.111772, -0.273297, 0.013783, -0.107328, 0.272638, 0.051286, 0.101609, -0.069595, -0.106631, 0.332311, -0.038441, 0.035020, -0.021802, 0.364829, 0.005654, -0.009909, -0.106395, -0.094397, -0.173303, 0.253914, 0.147392, -0.177873, 0.228807, 0.147152},
    {0.085840, -0.059041, 0.085928, 0.215790, 0.117785, -0.057243, -0.013251, -0.301470, 0.028286, -0.128631, -0.097683, 0.032131, -0.035909, 0.269988, -0.202403, 0.045756, 0.122225, -0.247741, -0.139231, -0.207628, 0.028009, -0.035057, -0.116732, -0.000652},
    {0.011206, -0.279351, -0.146422, 0.061597, -0.190895, 0.053102, 0.069632, -0.073410, -0.098504, -0.083359, -0.010673, -0.188402, 0.174841, 0.235011, 0.041297, -0.310155, 0.161529, -0.046313, -0.444873, 0.149567, 0.236195, -0.266331, 0.044695, -0.162738},
    {0.008484, -0.062732, -0.016907, 0.085411, -0.116835, -0.005406, 0.150482, 0.007035, 0.113159, -0.207417, -0.089464, -0.398584, -0.049834, -0.266711, -0.105342, 0.265505, -0.079952, -0.162581, -0.221288, 0.084652, 0.084683, 0.077009, -0.249408, 0.024123},
    {-0.135463, 0.122001, 0.195208, -0.263366, -0.182128, -0.167771, 0.239952, -0.030975, 0.238985, 0.290595, 0.124125, 0.076150, -0.110240, 0.029732, 0.078275, 0.099789, -0.194222, -0.131148, -0.092687, 0.170365, -0.012965, 0.266383, -0.178635, 0.027184},
    {0.065723, -0.231419, 0.034884, 0.204107, 0.118226, -0.087302, 0.061135, 0.288335, 0.021552, -0.097079, 0.351633, -0.412186, 0.106423, 0.238161, -0.079514, 0.251263, 0.110415, 0.036819, 0.042482, -0.101442, 0.112836, 0.078757, 0.047897, -0.005590},
    {-0.115164, 0.174300, 0.056412, -0.257924, -0.136301, -0.013769, -0.045005, 0.126608, -0.111219, 0.028301, -0.231377, 0.133630, 0.125504, -0.093867, -0.630436, -0.044581, 0.030296, -0.006590, 0.238694, 0.043999, -0.091637, 0.358687, -0.053982, -0.019343},
    {0.251566, -0.047561, -0.121795, 0.062820, 0.089989, -0.003348, -0.203758, -0.151192, -0.278047, 0.243993, -0.231497, 0.111668, 0.160681, 0.079885, -0.127691, -0.124092, 0.362528, 0.208664, -0.156740, 0.148230, -0.211747, -0.067349, -0.210885, 0.151797},
    {-0.082561, 0.061305, 0.003256, -0.366319, 0.050303, 0.039600, 0.258460, -0.157087, -0.119512, -0.028941, -0.200035, 0.098143, -0.424491, 0.124089, 0.011858, 0.163744, 0.049391, -0.165722, 0.117931, -0.105934, -0.209349, -0.132934, -0.041241, 0.025074},
    {-0.100515, 0.004393, -0.026354, 0.075948, 0.216033, 0.251813, 0.013178, 0.203502, 0.204770, 0.285173, 0.027961, -0.238292, 0.114411, -0.004891, 0.176713, -0.141896, -0.004370, 0.340058, 0.002339, -0.151138, -0.381229, 0.188666, 0.014340, -0.082781},
    {-0.026262, 0.138869, -0.052425, 0.191556, 0.106089, 0.035233, -0.097432, -0.273502, -0.249005, -0.026845, -0.088767, -0.013907, -0.200691, 0.100500, 0.102525, -0.251821, -0.103676, -0.235578, 0.239000, 0.199606, -0.120800, -0.171256, 0.186503, 0.099502},
    {-0.176903, 0.291556, -0.038797, 0.081855, -0.107319, -0.101650, 0.107462, 0.004103, -0.089367, -0.169185, -0.161099, -0.104602, -0.050925, -0.271840, -0.104341, 0.279486, 0.044819, 0.113758, -0.229872, -0.284950, -0.141674, 0.148654, 0.037444, 0.144609},
    {-0.236147, -0.213201, -0.209406, 0.180998, -0.183424, -0.162908, -0.293409, -0.012370, -0.023718, -0.158886, 0.145964, -0.082247, -0.169387, -0.189656, 0.027105, 0.233078, 0.025787, -0.115951, -0.168776, -0.035689, 0.138053, 0.066984, 0.208327, 0.077081},
    {-0.046979, -0.188105, 0.101313, 0.116567, -0.106396, 0.042309, -0.229147, -0.228491, 0.330779, -0.167160, -0.102967, 0.087008, -0.389715, -0.060852, 0.008955, 0.031929, -0.232503, -0.217267, 0.124218, 0.150977, -0.002743, 0.115142, 0.066323, 0.082507},
    {0.090332, -0.122952, -0.187780, -0.103961, 0.088481, 0.122147, 0.110458, 0.131722, -0.011070, -0.299244, 0.117284, 0.098647, -0.099169, -0.055746, 0.222407, -0.037334, 0.123669, 0.331928, -0.033767, -0.148226, -0.012777, 0.296766, -0.252289, -0.156233},
    {0.024584, 0.319530, 0.042161, -0.150518, -0.180243, 0.042310, -0.214842, 0.059455, -0.116892, 0.004467, 0.200299, 0.141235, 0.126069, 0.262319, -0.167673, 0.277476, 0.130770, 0.035290, 0.264205, -0.061751, 0.153471, -0.121819, 0.154428, 0.271693},
    {0.128654, 0.068129, -0.082771, 0.069324, 0.185142, 0.014122, 0.089127, 0.033350, -0.149468, -0.176689, 0.232352, -0.101584, 0.124550, 0.070766, -0.038518, 0.004795, 0.353568, 0.186962, -0.323730, -0.111283, 0.009341, 0.136439, 0.272898, 0.078302},
    {-0.254736, -0.069734, 0.151906, -0.232872, 0.085056, -0.219303, -0.071589, 0.045476, 0.129630, 0.149314, 0.298244, 0.235469, 0.093400, 0.039997, -0.173247, -0.227502, 0.395046, 0.063650, -0.107753, -0.068202, 0.264698, -0.059028, -0.106238, 0.014711},
    {0.236673, 0.000864, 0.086611, 0.020160, 0.206551, 0.129105, -0.085422, -0.198936, -0.091273, 0.178658, 0.265166, 0.120567, 0.169605, 0.219835, -0.269585, 0.291770, -0.321751, -0.175301, 0.127517, -0.023883, -0.124017, -0.315299, -0.159644, -0.209563},
    {0.025255, -0.291527, 0.153255, -0.187265, 0.118823, -0.221188, -0.122628, 0.265902, 0.135827, 0.099750, -0.116813, -0.328287, 0.082357, -0.008473, -0.440349, 0.037967, 0.016970, -0.205121, 0.006935, -0.242920, 0.113173, -0.268353, -0.089636, -0.096396},
    {0.055584, -0.112197, -0.248565, 0.212123, 0.252004, 0.046849, 0.046443, -0.194054, -0.154232, -0.069988, 0.141749, -0.049345, -0.093684, -0.102252, -0.106796, -0.018789, 0.030974, -0.064399, 0.166858, 0.051539, -0.006368, 0.133419, 0.256320, 0.245369},
    {-0.020939, -0.463139, 0.100425, 0.207014, 0.073367, -0.073092, -0.019945, 0.072893, 0.137007, 0.128416, 0.349340, 0.393449, 0.124925, 0.031329, -0.176720, -0.041859, -0.007638, -0.114536, 0.361954, -0.011919, 0.055104, -0.034954, -0.257732, -0.167059},
    {-0.244421, -0.094212, 0.118085, 0.163173, 0.179848, -0.152740, -0.222029, 0.029789, 0.079573, -0.338891, 0.005525, 0.103028, 0.272692, -0.059082, -0.061887, -0.272144, 0.152962, 0.012170, -0.141539, 0.072548, 0.134633, -0.012821, -0.005077, -0.293618},
    {0.038394, 0.181126, -0.143184, -0.139820, -0.150776, 0.053631, -0.205860, 0.258684, -0.275537, -0.174447, -0.196350, -0.065939, 0.044837, 0.134490, 0.150650, -0.161857, -0.301122, -0.103155, -0.276988, -0.141863, -0.125950, -0.017956, -0.113071, -0.094126},
    {0.083251, 0.046727, -0.021249, 0.046243, -0.307928, -0.010602, -0.321866, 0.079650, 0.043882, -0.116869, -0.048173, -0.100065, 0.154642, 0.069953, 0.144047, -0.272566, -0.171641, 0.231637, -0.036335, 0.006575, -0.133778, 0.411988, 0.169396, 0.086307},
    {0.314460, 0.078905, -0.015394, -0.162051, -0.191796, 0.013218, 0.082720, -0.158565, 0.075542, 0.440410, 0.158427, 0.146260, 0.192550, 0.032325, 0.151099, -0.007150, 0.146163, -0.178706, -0.328531, -0.050242, 0.161655, -0.221869, -0.083975, 0.038684},
    {0.000498, 0.003557, -0.113113, 0.225050, 0.002772, -0.088953, -0.038659, 0.330450, 0.020123, 0.029327, -0.083460, -0.118475, 0.312324, 0.115651, 0.081415, 0.335615, -0.066472, 0.210423, 0.017386, -0.225294, 0.120573, -0.060526, 0.177451, -0.035273},
    {0.002207, 0.163488, 0.183674, -0.088700, 0.221050, 0.060009, -0.289506, -0.134015, 0.016599, 0.302564, -0.213455, 0.212325, 0.257611, 0.150583, -0.197717, 0.086947, 0.071515, -0.103140, -0.105856, -0.034374, -0.156875, 0.173635, -0.136371, -0.218074},
    {0.083784, 0.107052, 0.131811, 0.014454, 0.182275, 0.224299, -0.159325, 0.049417, -0.172420, 0.058508, -0.019811, -0.088864, 0.057622, -0.324459, 0.030648, -0.299501, -0.066085, 0.037505, -0.104714, -0.283961, 0.063549, -0.102789, -0.015791, 0.018077},
    {-0.074860, -0.265255, -0.079319, 0.126384, -0.038343, 0.012563, 0.075173, -0.046585, 0.037578, 0.239414, 0.245390, -0.108222, -0.242717, 0.082794, 0.222690, 0.402068, 0.037387, 0.167190, -0.184927, -0.307407, -0.019520, 0.301190, -0.176608, -0.082458},
    {-0.252261, -0.027306, 0.118715, 0.092405, -0.022951, -0.170212, -0.251089, -0.190655, 0.013530, -0.032305, 0.166637, 0.135955, 0.024394, 0.468409, 0.080954, -0.020737, -0.149588, 0.100325, 0.159083, -0.078731, -0.182805, 0.046544, 0.017884, 0.040543},
    {0.283241, 0.042799, 0.139827, 0.267905, -0.095506, 0.174950, -0.073549, 0.240544, 0.121177, 0.215364, 0.057731, -0.057452, -0.130454, 0.230838, 0.100530, -0.225030, 0.202411, -0.209309, 0.220516, -0.129260, -0.057187, -0.204402, -0.078545, -0.256086},
    {-0.272940, 0.087521, -0.269741, -0.055085, -0.132831, 0.139416, 0.182886, -0.038723, 0.019986, 0.173939, 0.217622, 0.289047, -0.002577, -0.171287, 0.105986, 0.077738, 0.220730, 0.045786, 0.016629, -0.242637, 0.074371, 0.143363, 0.166499, 0.039584},
    {-0.092611, 0.021032, -0.193741, -0.095271, 0.192380, -0.011048, 0.309793, -0.231939, -0.258325, -0.011708, 0.313993, -0.056812, -0.082109, 0.296298, 0.265532, 0.260142, -0.086887, 0.053027, 0.110252, -0.038370, -0.170519, -0.013886, 0.161008, 0.062896},
    {0.133238, -0.006938, -0.102867, -0.063376, 0.014521, 0.115334, -0.208985, 0.026244, 0.308569, 0.172952, -0.255755, -0.257009, -0.362823, -0.045983, 0.081421, 0.291780, 0.307422, -0.291616, -0.157749, 0.150813, -0.075441, 0.033482, 0.104646, 0.185709},
    {0.130982, -0.080076, 0.404219, -0.041068, 0.110817, -0.176833, -0.156313, 0.063035, 0.285760, -0.198689, 0.071170, 0.171506, 0.011487, -0.428389, -0.050209, -0.213488, 0.003409, 0.095426, 0.191099, 0.240278, -0.015549, -0.137536, -0.122677, -0.166664},
    {-0.060960, 0.277586, 0.133493, -0.106927, 0.175487, 0.080266, 0.203767, 0.066764, -0.032055, -0.295244, 0.138553, -0.167500, -0.150671, 0.007324, -0.183941, 0.342248, 0.038432, 0.180519, -0.193763, -0.056530, 0.159270, 0.297856, 0.079307, 0.037009},
    {0.236679, -0.001149, 0.041864, 0.183590, -0.061484, -0.079064, -0.073350, 0.196200, 0.094469, -0.185928, 0.091194, -0.106920, -0.236466, -0.120203, -0.212809, 0.115411, 0.057509, -0.063376, -0.343355, -0.068850, 0.256487, -0.037175, 0.110316, -0.141125}
};

float b1[HIDDEN_DIM] = {0.342902, 0.189274, 0.097353, 0.331113, 0.250015, -0.240932, -0.016089, 0.216894, 0.057429, 0.328273, 0.102383, -0.113975, -0.037141, 0.019574, 0.282613, -0.281976, 0.369562, 0.220226, 0.390755, -0.178360, -0.153332, 0.309419, 0.082856, 0.051815, 0.008340, 0.221898, -0.149525, -0.029410, 0.277414, 0.301428, 0.340485, 0.167924, 0.255544, 0.050162, -0.252210, 0.366515, 0.113374, 0.044633, -0.095232, 0.150017, 0.015508, -0.026547, 0.102290, -0.073341, 0.354304, 0.462999, 0.244681, 0.184535, 0.171237, 0.156637, 0.266218, -0.032846, 0.177062, -0.227145, 0.190556, 0.216004, -0.119944, -0.007333, 0.077386, -0.007005, 0.095155, 0.308984, -0.031394, -0.004642};

float W2[OUTPUT_DIM][HIDDEN_DIM] = {
    {0.084848, 0.082658, -0.223702, -0.167965, -0.126960, -0.178851, 0.124380, -0.250407, 0.126726, 0.029258, -0.176046, 0.036238, 0.112557, -0.375629, -0.252430, -0.251930, -0.302667, -0.197929, 0.102806, 0.106509, -0.279148, -0.433112, -0.216169, -0.167517, 0.121685, 0.045651, 0.075293, -0.233893, 0.109660, -0.218827, -0.429203, -0.180289, -0.238630, -0.159185, -0.044351, -0.182261, 0.095538, -0.431745, -0.150620, -0.155561, -0.192255, 0.005659, -0.091324, -0.166195, 0.087984, 0.131822, -0.260652, -0.244510, 0.121073, 0.044004, -0.196961, 0.046292, 0.098537, -0.138264, 0.098440, -0.210293, -0.124766, 0.067261, -0.360972, -0.110291, -0.197710, 0.052320, -0.116168, 0.121730},
    {-0.137702, -0.248037, -0.166580, -0.123350, 0.107377, 0.114174, -0.023941, -0.025066, 0.023731, 0.001753, 0.087293, -0.001188, -0.157631, -0.256096, 0.097653, 0.076869, 0.119210, 0.021087, -0.217801, -0.133819, -0.040900, 0.110206, -0.143171, -0.197894, -0.045762, -0.279579, -0.214359, 0.031393, -0.092312, 0.108999, 0.084463, -0.164876, 0.105373, 0.040243, -0.279811, 0.030195, -0.191431, 0.090082, -0.363050, -0.152921, 0.121155, -0.028005, -0.264100, -0.083585, -0.216695, -0.094190, -0.160225, -0.084784, 0.005908, 0.113600, 0.005257, -0.176330, -0.168237, 0.129128, -0.064799, 0.083847, -0.037674, -0.185599, -0.133915, -0.146675, -0.123752, -0.239454, 0.050431, -0.312469},
    {-0.471738, 0.129523, 0.058729, 0.026817, 0.117873, -0.213657, 0.113430, 0.054895, 0.099685, 0.077511, -0.093654, -0.245668, 0.007259, 0.089413, -0.165689, -0.066051, 0.072295, -0.089429, -0.185531, -0.052537, -0.031901, -0.026199, 0.052069, -0.234937, -0.155914, -0.117311, -0.259423, -0.197169, 0.054053, 0.050844, -0.267459, 0.091136, -0.292576, -0.084835, -0.468384, -0.310260, 0.085065, -0.019247, 0.056600, -0.007279, 0.120510, 0.037624, 0.136050, -0.329085, -0.244350, -0.267670, 0.041145, -0.272674, 0.075256, 0.086240, 0.104831, -0.106330, -0.227308, -0.126212, 0.010979, -0.272308, 0.013959, -0.069851, -0.265171, 0.074436, -0.283890, 0.023436, 0.057639, 0.101901},
    {0.065695, -0.066632, -0.233592, -0.244261, 0.016870, 0.104466, -0.223979, -0.138337, 0.114931, 0.018186, 0.048143, -0.025494, -0.210462, -0.203296, -0.202783, 0.031965, 0.124071, 0.038256, -0.350742, -0.039835, -0.031574, 0.086653, -0.205311, -0.190265, 0.082472, -0.197452, -0.129502, -0.002082, -0.177157, 0.123359, 0.105004, -0.175413, -0.003118, 0.080163, 0.034148, -0.225266, -0.048759, -0.127775, -0.160645, -0.088080, 0.141632, -0.046730, -0.049035, 0.106211, 0.041741, 0.022899, -0.018572, 0.123108, -0.282032, 0.083703, -0.235161, 0.035561, -0.204502, 0.081970, -0.022815, 0.060529, -0.149279, -0.022159, -0.234820, -0.149900, -0.150132, 0.074719, -0.127559, -0.078937},
    {0.110601, 0.036163, -0.180028, -0.414670, -0.190913, -0.027297, -0.237915, -0.250197, 0.118859, 0.039017, 0.061903, -0.433877, 0.062055, -0.170722, -0.176318, -0.046330, 0.076713, -0.019254, 0.083903, -0.233699, -0.182790, -0.132697, -0.032024, -0.079586, 0.077202, -0.103273, -0.183308, 0.029021, 0.116001, 0.033642, -0.184803, -0.068287, -0.239843, 0.049978, 0.064266, -0.110198, -0.181027, -0.180305, -0.201368, -0.364913, 0.004300, -0.258283, -0.201318, 0.006885, 0.115961, 0.101829, -0.153582, 0.062968, -0.013189, 0.110743, -0.141672, 0.111911, -0.256532, -0.105712, 0.069037, -0.187502, -0.290430, 0.152913, -0.233928, -0.086413, -0.084659, 0.095915, -0.216708, -0.147671},
    {-0.043300, 0.006083, -0.342272, -0.398274, 0.101674, -0.086201, -0.328338, 0.076345, -0.000355, -0.239540, -0.017056, -0.038438, -0.386889, -0.057931, -0.262117, -0.122898, -0.317560, 0.043377, -0.161714, -0.221512, -0.124725, 0.131624, 0.066324, -0.267050, 0.050443, -0.009189, -0.084520, -0.109887, 0.000720, -0.164258, -0.148933, 0.124770, -0.233778, -0.149064, -0.026639, -0.229757, -0.133991, -0.235979, 0.043430, -0.023327, 0.179284, 0.100900, 0.140135, 0.119410, -0.060462, -0.166916, 0.013227, 0.132801, 0.081327, -0.311621, 0.035010, -0.172527, -0.238549, -0.250669, -0.154046, -0.170541, 0.063233, -0.004061, 0.052638, 0.047251, -0.068425, 0.101330, 0.077365, 0.094834},
    {0.080646, -0.175068, -0.181471, -0.048793, -0.299278, -0.127066, -0.101765, 0.071250, 0.062639, 0.061706, -0.128177, -0.156457, -0.087130, 0.107103, -0.175766, -0.112422, 0.114685, -0.252329, 0.091357, -0.094836, -0.359069, -0.154795, 0.102003, 0.097665, 0.064132, 0.076596, -0.243884, -0.098090, -0.167676, -0.320465, 0.091630, -0.208150, 0.084121, -0.245911, 0.031796, -0.008229, 0.052120, 0.090950, -0.053709, -0.074558, -0.049867, 0.107949, -0.065926, 0.088269, -0.222278, -0.193323, -0.332042, -0.173698, 0.095222, -0.065765, -0.267215, -0.041108, -0.210868, 0.057382, -0.051527, -0.309847, 0.082163, -0.197334, 0.066946, -0.000615, -0.232375, -0.299295, 0.054263, -0.085324},
    {0.101253, -0.325761, -0.374796, 0.072910, -0.203319, 0.080592, -0.085316, -0.199446, 0.082781, 0.055786, 0.123296, -0.141458, 0.043449, 0.062044, 0.012360, -0.354539, 0.028095, -0.168400, 0.083930, -0.274625, -0.068010, -0.246696, -0.021258, 0.022821, 0.076877, -0.000438, -0.204391, 0.035168, -0.318819, -0.341539, -0.220101, 0.000320, -0.236137, -0.175662, -0.276816, 0.068593, 0.057540, 0.086826, 0.066010, -0.089740, -0.150396, -0.224111, 0.058163, 0.025261, -0.184148, -0.282145, 0.093954, -0.061571, 0.097128, -0.299626, -0.364142, -0.328551, 0.070673, -0.051121, -0.271347, 0.007854, 0.064496, -0.293255, 0.089962, 0.070190, -0.334473, -0.260010, 0.018536, -0.295051},
    {0.056250, -0.340979, -0.299214, 0.076812, -0.329446, 0.066274, 0.072290, -0.227884, 0.006336, 0.072752, 0.139486, 0.009807, 0.070114, -0.002708, 0.099686, 0.035700, -0.292314, -0.012990, -0.296499, -0.211265, 0.016862, 0.080153, -0.028052, -0.050082, 0.079635, -0.136923, 0.054796, 0.050746, -0.317030, -0.219931, -0.324143, 0.053154, -0.195530, 0.048750, -0.111749, 0.127943, 0.047617, -0.015947, -0.101546, -0.288832, -0.033853, -0.299636, 0.100079, -0.428420, 0.061910, -0.227664, 0.134754, -0.002654, 0.078289, -0.352742, -0.305923, -0.235809, 0.036198, -0.026792, 0.054343, -0.010387, -0.134684, 0.056497, -0.110037, 0.009779, -0.068990, -0.196078, 0.026616, 0.005648},
    {0.061657, -0.082088, 0.050965, -0.253440, 0.128827, -0.133172, -0.157953, -0.235952, -0.163057, -0.064641, 0.116002, -0.222299, 0.050692, -0.077838, 0.053697, 0.162499, -0.041886, 0.098675, -0.340721, 0.102721, -0.234747, -0.193368, 0.029017, -0.032218, 0.070348, 0.092038, 0.102916, -0.117089, -0.167217, -0.138060, -0.102006, -0.247448, 0.029165, -0.060683, 0.087759, 0.071734, -0.243451, -0.048230, -0.257954, -0.075590, 0.083286, 0.009147, 0.065774, 0.097750, -0.034262, 0.064824, -0.058706, -0.112166, -0.064068, -0.094740, -0.342411, -0.104714, -0.135291, 0.062457, 0.034575, -0.057147, -0.048697, -0.210138, 0.003094, 0.050568, -0.014947, -0.014438, 0.047982, -0.186577},
    {-0.092852, 0.027741, 0.056746, -0.359548, 0.149016, -0.199713, -0.071535, 0.020196, -0.174214, -0.053948, -0.241704, 0.080601, -0.418087, -0.194883, -0.108632, -0.094514, 0.026942, 0.042330, 0.092897, 0.154898, 0.051983, -0.195921, 0.045320, 0.098447, 0.027919, 0.019688, 0.058637, -0.119353, 0.001247, -0.056363, 0.104083, 0.058286, 0.078841, -0.405859, 0.084560, 0.066213, -0.309306, -0.239676, -0.321507, -0.004658, 0.115993, -0.241517, 0.043371, 0.123489, -0.278492, 0.107101, -0.297291, -0.306159, -0.018119, -0.330615, 0.075938, -0.032573, -0.147327, -0.228967, -0.393046, -0.122238, -0.251498, -0.080543, -0.062901, 0.054257, -0.076144, 0.164957, 0.055851, -0.328365},
    {-0.053095, -0.132175, -0.157349, 0.020411, -0.080931, 0.070933, 0.135779, -0.222180, -0.209319, -0.114177, -0.131490, -0.103392, -0.173222, 0.110748, -0.104273, -0.129430, 0.073571, -0.144737, 0.127902, 0.023441, 0.064420, 0.107332, 0.127531, 0.070961, -0.118486, -0.174575, -0.008841, -0.075313, -0.243431, -0.007537, 0.100669, 0.108281, -0.004553, -0.319531, -0.020798, 0.088762, -0.174779, -0.244083, -0.187252, -0.128037, 0.069909, -0.180648, 0.010383, 0.065989, -0.135983, 0.119592, -0.079250, 0.079750, -0.134099, -0.198992, -0.212766, -0.212006, 0.092931, -0.297252, -0.192295, -0.116017, -0.124719, 0.112698, 0.035712, -0.141862, -0.071010, -0.012325, 0.036883, 0.000526},
    {-0.209048, -0.282044, -0.103409, -0.184817, -0.203602, -0.115629, -0.034629, -0.196869, -0.078104, -0.013402, 0.028878, 0.034529, -0.052891, -0.202545, 0.104677, 0.109163, -0.084239, -0.023543, -0.176292, -0.097412, -0.012100, 0.023194, 0.124123, -0.340291, -0.268666, -0.016614, -0.311844, -0.178021, -0.278114, -0.274473, -0.297592, 0.109389, 0.068150, -0.294548, -0.066871, 0.125413, -0.217685, -0.336564, 0.055555, -0.127264, -0.107808, 0.105190, -0.310433, 0.098723, -0.224457, 0.128638, -0.249097, 0.073197, 0.067984, 0.111810, 0.114004, -0.212320, 0.106731, 0.033471, -0.019928, -0.303147, -0.130499, 0.072650, -0.402914, -0.093167, 0.068874, 0.102279, -0.191483, 0.027087},
    {-0.160057, -0.134621, -0.135645, -0.028815, -0.069507, -0.231781, -0.195598, -0.253183, -0.228899, -0.242054, 0.155319, -0.288659, -0.162732, -0.279899, 0.117041, -0.173847, -0.264185, -0.086153, -0.304574, -0.084650, 0.062622, -0.114420, 0.099847, -0.251233, -0.158808, 0.030426, 0.094605, 0.003150, -0.113896, -0.312954, 0.046528, 0.079331, -0.061097, 0.062739, -0.207022, 0.109106, -0.200414, -0.214410, 0.054136, -0.282720, 0.003365, 0.101739, 0.009426, 0.107746, 0.100975, 0.074314, -0.278209, 0.071790, -0.166099, -0.056470, 0.077269, 0.104142, 0.061081, 0.092057, 0.025133, 0.053593, -0.026814, 0.068851, 0.000350, -0.165990, 0.058743, -0.040563, -0.120138, -0.015132},
    {-0.205388, -0.176691, -0.316940, -0.074755, -0.069768, -0.108203, -0.265498, -0.138204, -0.140379, -0.043716, -0.157855, -0.036989, -0.017199, 0.000649, -0.001798, -0.250611, -0.224501, -0.117880, -0.126995, -0.169411, 0.078016, 0.111449, 0.108178, 0.060211, 0.057972, 0.052624, 0.117347, -0.084309, -0.073715, -0.126064, 0.108198, 0.074959, -0.171608, -0.173804, -0.098107, 0.082090, -0.183775, -0.278866, -0.052482, -0.210465, -0.226830, 0.065537, -0.009363, 0.122017, 0.122063, -0.414113, 0.031770, 0.124876, -0.228019, -0.184028, -0.234072, 0.139447, -0.205739, 0.027255, -0.221117, 0.091533, 0.019078, 0.073360, 0.117967, 0.069040, -0.178048, -0.121676, -0.182359, -0.288484},
    {0.086822, 0.068459, 0.034224, -0.231844, -0.300812, -0.114162, -0.007305, -0.378460, 0.082885, -0.305877, -0.112859, 0.121539, 0.112961, 0.005648, -0.241191, -0.244007, -0.400019, -0.338342, 0.097635, 0.094379, -0.202300, -0.156148, 0.103402, 0.105379, -0.257634, 0.081819, 0.120511, -0.428411, 0.094498, -0.350386, -0.156384, -0.052694, -0.168507, -0.063464, 0.058026, -0.090847, 0.107386, -0.061700, 0.110305, -0.130383, -0.221027, 0.098413, 0.072975, -0.203488, -0.281676, 0.076432, -0.007347, -0.081969, -0.104966, -0.263884, -0.332288, -0.144305, 0.063642, -0.068571, -0.118542, -0.199899, -0.104652, -0.251598, -0.116567, 0.015875, 0.044557, -0.425336, -0.182590, 0.007334},
    {-0.161257, -0.188086, -0.181942, -0.425140, -0.342043, -0.135557, -0.112643, 0.090990, -0.322180, -0.119371, -0.116591, -0.155715, -0.223288, -0.157183, 0.083264, -0.169659, -0.045980, -0.241636, -0.224545, -0.187821, 0.085547, -0.279653, -0.297979, -0.249366, 0.086676, 0.076622, 0.118250, 0.000810, -0.174718, -0.271750, 0.084861, -0.020637, -0.084769, -0.251430, 0.141172, -0.180862, 0.088186, -0.210425, 0.077741, 0.100240, 0.158416, -0.210256, -0.080088, -0.086546, -0.314409, -0.219094, -0.087889, -0.318223, -0.052555, -0.119399, -0.101493, -0.339123, -0.114463, -0.071704, -0.239348, 0.110218, 0.091662, 0.112556, -0.012257, 0.145335, 0.082224, -0.195318, 0.008954, 0.018771},
    {-0.299071, 0.121514, -0.091880, 0.065594, 0.125879, -0.060696, -0.230522, -0.095062, -0.004873, 0.030205, -0.244159, -0.024084, -0.187393, -0.245422, 0.141744, -0.147465, 0.112539, -0.053073, -0.079933, -0.279891, -0.174286, 0.106067, -0.043437, -0.219477, -0.218723, -0.016241, -0.219284, -0.083526, -0.172636, 0.105135, 0.111005, -0.055218, 0.015030, -0.125141, 0.044623, -0.226433, -0.312700, 0.039461, 0.076054, 0.098778, -0.088964, -0.291123, -0.410076, -0.057340, 0.119935, 0.204881, -0.180952, 0.124015, -0.489923, -0.196243, -0.018991, -0.235546, -0.033787, -0.121796, -0.173156, 0.075222, -0.352901, -0.242755, -0.213452, -0.289100, 0.023924, 0.032670, 0.031102, 0.118470},
    {0.094401, 0.012420, 0.058296, 0.094490, -0.242769, -0.248459, 0.120056, 0.076554, -0.213516, -0.276612, 0.037495, 0.104140, 0.090563, -0.233221, 0.036654, 0.087124, -0.419868, -0.150440, -0.125445, -0.119697, -0.056744, 0.095675, 0.129884, -0.073316, 0.087955, -0.157319, -0.125004, 0.038023, -0.103139, -0.092900, -0.228030, -0.160813, 0.034068, -0.294257, 0.056335, 0.015709, 0.069315, -0.255513, -0.187565, -0.118027, -0.013356, 0.108589, -0.123483, 0.014465, 0.024408, 0.063341, 0.090041, 0.115099, -0.347430, -0.210993, -0.256489, -0.211880, -0.169605, -0.058578, 0.067108, -0.018506, 0.067268, 0.022659, 0.038046, 0.003022, -0.095830, -0.172441, -0.121576, -0.048973},
    {-0.063732, 0.069678, 0.143793, -0.119255, -0.018262, -0.004603, -0.136698, 0.000667, 0.116998, -0.110892, -0.254168, -0.128942, -0.153923, 0.030761, -0.102666, -0.177536, 0.160674, 0.011826, 0.109558, -0.047003, 0.012677, 0.127586, -0.175865, 0.007357, -0.098678, 0.091416, 0.065928, 0.053912, -0.058738, 0.034749, 0.131694, -0.043130, -0.396258, -0.244105, -0.057081, -0.250388, 0.059241, -0.279677, -0.090755, 0.092284, -0.135011, -0.056548, -0.112970, -0.122836, 0.124073, -0.002982, -0.017657, -0.164101, -0.246927, 0.135203, 0.102478, 0.002366, 0.035819, -0.085795, -0.008409, -0.059501, 0.113776, 0.049855, -0.180195, 0.067384, 0.042449, -0.345246, -0.122731, -0.241323},
    {-0.246846, -0.289762, 0.051249, -0.139061, -0.067540, 0.085238, 0.142107, -0.191205, 0.016964, -0.325463, 0.035094, 0.038353, -0.181583, -0.069347, -0.147733, 0.013123, 0.072632, 0.036664, 0.103822, 0.105176, 0.082782, -0.287918, -0.102590, -0.295078, -0.069476, -0.222951, 0.074640, -0.109704, 0.065443, -0.054237, -0.271195, 0.110460, -0.261832, 0.022126, -0.201946, 0.070039, -0.083978, -0.095841, -0.079616, -0.125519, -0.040726, -0.099212, 0.059351, -0.035596, 0.079017, 0.011592, -0.088445, 0.073671, 0.141817, 0.023898, 0.065615, 0.097380, 0.076767, 0.117981, -0.105064, -0.000245, 0.086849, -0.133564, -0.145039, -0.029582, -0.196655, -0.294748, -0.212275, -0.066864},
    {0.009822, 0.048125, 0.077273, 0.017575, 0.075147, 0.048457, 0.107838, -0.344729, -0.052649, -0.092051, 0.051908, 0.016479, 0.101509, -0.132499, 0.006792, -0.016779, 0.041355, 0.035879, 0.115631, -0.142662, -0.149915, 0.112987, -0.167589, 0.099797, -0.162230, -0.126665, -0.186192, -0.100808, -0.039448, 0.023406, -0.144657, -0.245987, 0.126844, 0.055788, -0.252261, -0.118359, -0.099843, 0.000447, -0.444169, -0.173034, -0.233149, -0.197543, -0.028298, 0.120842, 0.018526, 0.088564, -0.124213, 0.091134, 0.119422, -0.108818, -0.117964, 0.089415, 0.037764, 0.137899, 0.092400, -0.153375, -0.148087, -0.208950, -0.067256, -0.070047, -0.217407, 0.085115, -0.488106, -0.232695},
    {0.009245, -0.045591, -0.115087, -0.273390, -0.115707, 0.098424, 0.087701, -0.263571, -0.093675, -0.403941, 0.160852, 0.120862, 0.019629, -0.274216, -0.244519, -0.072064, -0.240705, 0.070224, -0.148118, -0.044577, 0.006186, -0.199623, 0.127410, -0.003275, -0.081907, -0.262474, -0.131678, -0.077063, -0.150682, 0.054282, -0.059927, 0.085747, -0.001171, 0.032102, 0.074532, -0.308444, -0.103424, 0.083141, 0.062464, -0.219216, 0.088614, 0.116015, 0.037568, 0.044627, -0.100675, -0.242365, -0.297569, -0.091890, -0.230198, -0.065392, -0.224153, 0.053959, 0.057551, -0.220267, -0.299852, 0.101110, -0.233178, -0.178402, 0.075553, -0.022520, 0.062721, -0.289532, 0.038138, 0.046852},
    {-0.409395, 0.007539, -0.233424, 0.089770, -0.148077, 0.143135, -0.233633, 0.040237, 0.072795, -0.170917, -0.161206, 0.151305, -0.163051, 0.032133, -0.285294, -0.069770, -0.125371, -0.125809, -0.321303, -0.122095, 0.081994, -0.149501, 0.076843, 0.075375, -0.259937, -0.209383, -0.327284, -0.424084, 0.044434, 0.048115, 0.055091, -0.167859, 0.084477, -0.171442, 0.046565, -0.202411, -0.372646, 0.053056, 0.079025, -0.032876, -0.100270, 0.101349, -0.131294, -0.158549, -0.271720, -0.393631, -0.044803, -0.306465, -0.052293, -0.062326, 0.092170, 0.097733, -0.099332, -0.199039, -0.283098, 0.076227, -0.200582, 0.087069, 0.087580, -0.257477, 0.043338, -0.317172, -0.291724, 0.020458},
    {-0.222536, -0.231050, 0.061244, -0.227054, -0.201394, -0.007333, -0.016004, 0.040425, -0.071453, 0.073713, -0.015933, 0.007075, 0.013675, -0.007957, -0.097409, 0.091310, -0.036352, -0.134169, -0.011468, 0.107021, -0.048907, 0.116775, 0.091404, -0.134178, -0.079292, -0.246380, -0.169786, 0.066198, -0.148300, -0.173983, -0.220453, -0.027038, -0.002985, 0.037978, -0.124315, -0.159976, 0.023992, -0.249681, -0.252844, -0.054168, -0.052582, 0.106100, 0.100559, -0.069259, 0.097879, -0.027113, -0.224931, -0.124701, -0.049761, -0.030276, -0.021060, 0.104067, -0.169169, 0.081452, 0.097498, -0.207480, -0.189276, 0.089825, -0.258008, -0.225594, -0.011479, 0.089803, 0.026777, 0.104812},
    {0.099812, -0.009115, -0.054452, -0.016631, -0.227567, -0.242730, -0.229417, 0.094271, -0.203266, -0.134806, -0.070961, -0.028244, -0.039674, 0.070189, -0.153212, -0.121011, -0.287862, -0.003009, -0.028676, 0.079606, -0.071623, -0.078163, -0.357200, 0.080580, 0.128324, -0.189422, -0.207737, -0.144718, 0.087020, -0.055191, -0.359646, -0.168844, -0.007541, 0.111093, -0.137261, 0.047568, 0.016646, -0.256801, -0.048391, -0.156602, 0.117502, -0.185152, 0.103597, 0.157266, -0.199833, -0.338944, -0.219434, -0.102377, 0.150096, -0.081851, 0.062372, 0.037323, -0.052322, -0.119526, 0.052886, -0.080457, -0.174702, 0.140661, 0.067285, -0.322039, -0.198175, 0.076435, -0.173645, -0.221578},
    {0.117760, -0.280937, -0.158803, 0.085208, -0.242214, -0.191050, -0.118191, 0.101288, -0.128815, -0.109317, -0.076478, -0.051809, 0.092773, -0.154633, -0.215853, -0.166164, -0.209354, 0.086634, -0.197995, 0.074353, -0.142570, -0.134462, -0.360061, -0.223022, 0.106822, -0.196577, -0.179549, -0.121741, 0.002064, -0.189355, -0.351931, -0.317091, 0.099741, 0.081588, -0.017156, -0.264979, 0.126868, -0.376407, -0.355999, 0.077330, -0.200272, -0.221472, -0.192773, 0.137428, -0.213038, -0.191231, 0.099848, 0.096927, 0.085324, -0.347660, 0.054085, -0.184873, -0.128511, -0.205014, -0.253600, -0.221042, 0.045904, 0.094041, -0.278293, -0.065614, -0.227999, 0.115171, -0.171369, -0.222983},
    {0.110671, -0.132144, 0.084011, 0.039277, -0.023851, -0.012805, -0.028012, 0.039169, -0.020150, 0.097059, -0.164207, -0.025652, -0.026337, -0.185374, -0.223739, -0.127868, 0.023925, 0.080559, -0.043827, -0.263288, 0.102966, 0.055323, 0.081407, -0.247428, -0.108098, -0.176214, 0.043788, -0.317338, -0.167639, -0.053169, 0.019675, -0.282118, 0.093260, 0.050498, -0.012675, 0.062122, 0.114372, -0.017667, -0.286584, 0.072406, 0.020147, 0.080075, -0.049259, -0.390421, 0.024662, -0.212583, 0.116179, 0.138926, -0.229036, 0.053469, -0.085952, -0.235670, -0.261304, -0.179061, -0.127318, -0.207397, 0.064755, -0.145614, -0.172786, 0.102648, -0.320249, 0.128162, -0.253324, -0.111624},
    {-0.154162, -0.217790, -0.047662, -0.079398, -0.307738, -0.218144, -0.121539, 0.049255, -0.145956, 0.045456, 0.125064, -0.167696, -0.285398, 0.118116, 0.119287, -0.287782, -0.181844, -0.046949, 0.113453, 0.058002, 0.045283, 0.009006, -0.480311, 0.109686, -0.107742, 0.057993, 0.133398, -0.251741, 0.082397, -0.230774, 0.042204, -0.141432, 0.106937, 0.105948, -0.341644, 0.133894, 0.051333, -0.226679, -0.208314, -0.010947, -0.319394, 0.038980, -0.152467, -0.164273, -0.257231, -0.351352, -0.086545, -0.103471, -0.218543, 0.024803, 0.126343, 0.074191, -0.187890, 0.106008, -0.077709, -0.368389, -0.215141, -0.079912, -0.155726, -0.061705, 0.081139, -0.349072, -0.369127, -0.350972},
    {-0.332385, -0.332828, -0.355618, -0.242709, 0.061898, -0.328363, -0.307611, -0.176257, 0.067630, 0.100120, 0.041659, -0.148027, -0.061999, 0.117539, -0.193335, -0.222790, -0.090899, 0.107481, 0.138101, 0.093414, -0.141098, -0.354977, -0.081487, -0.067085, -0.236766, 0.082840, 0.121247, -0.059202, 0.097802, 0.089095, 0.016918, -0.050677, -0.244023, 0.066630, -0.329697, -0.195574, -0.238831, -0.173610, 0.077172, -0.014710, -0.155907, -0.115810, 0.101237, 0.081824, -0.358763, -0.201608, -0.464246, -0.086339, 0.125941, -0.004243, 0.025276, 0.136327, -0.202058, 0.054582, -0.190115, -0.196708, -0.220810, -0.037309, -0.092386, -0.203297, 0.063391, -0.278243, -0.041851, 0.136043},
    {-0.223944, -0.415074, 0.064435, -0.241360, 0.071182, 0.053506, -0.100927, -0.280719, -0.228921, 0.028712, 0.004626, -0.063165, -0.256668, 0.104399, 0.069609, -0.009660, 0.090212, -0.194582, 0.107567, 0.056648, -0.172898, -0.098975, -0.252282, 0.069766, -0.285163, -0.066893, 0.070414, -0.125457, 0.034043, 0.074558, 0.032159, -0.087003, 0.069156, 0.005555, -0.229634, 0.018072, -0.284264, 0.052469, 0.019034, 0.005958, -0.066909, -0.319137, 0.073443, -0.156255, -0.309268, -0.388343, -0.003273, -0.068128, 0.076996, 0.069159, 0.091432, -0.195612, -0.098168, 0.075640, -0.219743, -0.038867, -0.189070, -0.118703, -0.250507, -0.250373, 0.050447, -0.099994, 0.044885, 0.011824},
    {-0.141122, -0.296383, 0.104896, 0.039125, 0.013401, 0.036164, -0.043961, 0.070992, -0.353989, -0.334432, -0.065109, -0.050909, -0.075771, 0.106253, 0.122117, 0.043787, -0.050302, -0.220447, -0.334974, 0.040174, 0.014611, -0.275405, 0.127734, 0.108101, -0.019806, -0.427403, 0.003502, -0.004053, -0.375728, -0.190450, -0.110930, -0.103740, 0.092700, -0.220981, -0.142223, 0.079133, -0.172698, 0.072060, 0.061173, 0.030992, -0.164737, -0.171933, 0.067950, -0.157645, -0.075650, -0.257447, 0.136140, -0.252474, -0.150181, -0.069749, 0.111827, -0.115169, 0.098968, -0.025836, -0.035189, -0.107817, -0.170020, -0.097389, 0.022884, -0.189229, 0.020922, -0.205232, 0.050271, -0.103037},
    {-0.080618, -0.037437, -0.111842, -0.067951, -0.007473, 0.054328, -0.046243, -0.284205, 0.017765, -0.410127, 0.021449, -0.146343, -0.091419, 0.065460, 0.076037, 0.068466, 0.061897, -0.249358, 0.092726, 0.047366, -0.238374, -0.238702, -0.255846, 0.008897, -0.063610, -0.552391, -0.085217, 0.084175, 0.055129, 0.038416, -0.051982, -0.195639, -0.262236, -0.077474, -0.190271, 0.057952, -0.240342, 0.103207, -0.024099, -0.335392, 0.082706, -0.068960, 0.047287, -0.017849, -0.299096, 0.016097, -0.345410, -0.185839, -0.087644, 0.120576, 0.023786, 0.097932, 0.031367, 0.053855, 0.100141, 0.086120, -0.174686, -0.117973, 0.026828, -0.029512, -0.097004, -0.223863, 0.032499, 0.108750},
    {-0.125945, -0.011947, -0.080310, 0.023368, -0.069779, -0.032939, 0.117211, -0.029547, -0.249238, -0.288911, -0.002525, 0.108609, 0.083185, -0.096383, 0.045533, 0.103356, -0.256421, -0.312246, -0.126426, 0.022935, -0.173218, -0.165343, -0.009593, 0.021047, 0.053625, -0.198970, -0.112632, 0.089499, -0.325969, -0.248935, -0.195395, 0.047536, -0.393169, -0.049882, -0.019143, 0.020415, -0.118028, 0.100021, 0.011168, -0.184541, 0.054574, -0.000510, -0.008848, 0.105946, -0.108023, 0.100861, -0.191470, -0.171244, -0.254056, 0.078192, -0.211527, 0.067765, 0.072996, -0.010543, 0.104297, 0.104850, -0.036381, 0.003314, 0.070159, -0.092151, -0.146232, -0.272256, -0.011050, 0.076769},
    {-0.342479, -0.258018, 0.081663, 0.054154, -0.199453, 0.103832, -0.168554, 0.034314, -0.177539, 0.032415, 0.043833, 0.119167, 0.054996, 0.011263, 0.084040, 0.088549, 0.050797, -0.366442, -0.153549, 0.107479, -0.293650, -0.254532, -0.057386, 0.090234, -0.236428, -0.066091, 0.042615, -0.075650, -0.259792, -0.280309, -0.353523, -0.002060, 0.087527, 0.031889, 0.091374, -0.108026, 0.051787, 0.021035, -0.085426, 0.078503, -0.134291, -0.193472, -0.137793, -0.282385, -0.299225, -0.198993, -0.221401, -0.193445, 0.037634, 0.177218, 0.107860, -0.162607, 0.030406, 0.104399, -0.222502, -0.250243, -0.126536, -0.195842, -0.310816, -0.136263, 0.057219, -0.192748, -0.182369, -0.326560},
    {0.057422, 0.140761, 0.050269, 0.076788, 0.122248, -0.004285, -0.138512, -0.360378, 0.087852, 0.132134, -0.477958, -0.202398, 0.068642, -0.204208, 0.089261, -0.500625, 0.069911, -0.280660, 0.106344, -0.145216, -0.095771, 0.093202, -0.069989, 0.141493, -0.181554, -0.371984, -0.208111, -0.065795, -0.381536, 0.088732, -0.166647, -0.194754, 0.117455, -0.254360, -0.125831, -0.411246, -0.282731, 0.099826, 0.030828, -0.148151, -0.081326, -0.303239, -0.050133, -0.239790, -0.269989, 0.128798, 0.072053, -0.272049, 0.029558, -0.022760, -0.172198, -0.151639, -0.213967, -0.221526, 0.139142, -0.328766, -0.064072, -0.015027, -0.026586, -0.204666, -0.430932, 0.100920, -0.139646, 0.057813},
    {0.003757, 0.038061, 0.089393, 0.070211, -0.009316, -0.108412, 0.087078, 0.009047, -0.070100, 0.062019, -0.107003, 0.109098, 0.118598, 0.016603, -0.200462, 0.086808, 0.063059, -0.333513, 0.002930, 0.121925, -0.235118, -0.281886, 0.091669, 0.021225, -0.116970, 0.037859, 0.025460, -0.094060, 0.066725, -0.343188, -0.110874, -0.183560, -0.212375, -0.353578, 0.024628, -0.220722, 0.089971, 0.045613, 0.037134, 0.048985, -0.131031, -0.066158, 0.098415, -0.187155, -0.199272, -0.176816, 0.011534, -0.047281, 0.078922, 0.018774, 0.009342, -0.109073, 0.025149, -0.343672, -0.211139, -0.086085, -0.148103, -0.196005, -0.098868, -0.302784, -0.005607, -0.045728, 0.006717, 0.074697},
    {0.063065, -0.174039, -0.094154, -0.029108, -0.156394, 0.114019, -0.105806, -0.337542, 0.025298, -0.396908, 0.140678, -0.116193, -0.112877, -0.042008, 0.037318, -0.036950, -0.121399, 0.107864, -0.107040, -0.326408, 0.064104, -0.285798, -0.306774, -0.029631, 0.104597, 0.049253, 0.081738, 0.065812, 0.054003, -0.232850, -0.022251, 0.097826, -0.094309, -0.210942, 0.076221, -0.071055, 0.026471, -0.225165, 0.094274, 0.065404, -0.131284, -0.139710, -0.299782, 0.110423, -0.290540, 0.035162, -0.065297, 0.052265, 0.038800, -0.108733, -0.201543, -0.198450, -0.142588, -0.220965, -0.150952, 0.103977, 0.095765, -0.091436, 0.001427, 0.098876, -0.063891, -0.243932, -0.023407, -0.313500},
    {0.097523, -0.075364, -0.097476, -0.055726, 0.066477, 0.092951, -0.267520, 0.071499, -0.386039, -0.353964, -0.138872, 0.141271, -0.206136, -0.062440, -0.078744, -0.209391, -0.112968, 0.101920, 0.078486, -0.157517, 0.064304, -0.078269, 0.019284, 0.095770, -0.123581, -0.169741, -0.306146, -0.271990, 0.105352, -0.235262, 0.047976, -0.316555, 0.080471, 0.076894, 0.116408, -0.084878, -0.327526, -0.147698, -0.227638, -0.408549, 0.097851, 0.060270, 0.100516, 0.143283, -0.244658, -0.054556, -0.267445, -0.212397, -0.077826, -0.006341, -0.278552, 0.135429, -0.078820, -0.148331, -0.134617, -0.091062, -0.142221, 0.051755, 0.074182, -0.235944, 0.058528, -0.172080, -0.214520, -0.257379},
    {-0.125564, 0.074393, -0.098125, -0.095955, -0.654242, 0.088075, -0.241591, -0.353427, -0.084677, -0.056731, -0.164910, 0.083648, -0.270675, -0.244280, 0.102809, -0.090398, -0.441397, 0.056496, -0.044806, -0.186997, 0.058088, -0.332409, 0.126527, -0.007332, -0.170710, 0.092329, -0.093332, 0.044548, -0.288922, 0.047498, 0.051090, 0.071964, -0.067190, -0.343511, 0.104706, -0.248583, -0.480596, 0.074168, 0.082376, 0.064575, -0.428584, 0.088566, -0.278541, -0.323417, -0.215402, -0.253647, -0.287578, -0.481245, -0.157353, -0.313688, -0.267583, -0.293392, -0.299957, -0.136660, -0.218079, 0.103920, 0.022840, 0.026746, 0.070759, 0.038969, 0.071413, -0.277160, 0.073322, 0.105833},
    {-0.179362, -0.031866, 0.122485, -0.062302, 0.131880, 0.071854, 0.116919, -0.248606, 0.033138, -0.014659, -0.069876, 0.138263, 0.081479, -0.226550, -0.336666, 0.052358, 0.048876, -0.398738, 0.112564, -0.197532, -0.058164, 0.004909, 0.120989, -0.135856, -0.023097, -0.083505, -0.236473, -0.026040, -0.127525, 0.079958, -0.124592, -0.192752, -0.300924, -0.132861, -0.186574, 0.066856, -0.047711, 0.039798, -0.000506, -0.246358, -0.044560, -0.271152, -0.057030, -0.242633, -0.282842, -0.216433, -0.197351, -0.050716, 0.098396, -0.085758, 0.062647, 0.085862, 0.082332, -0.152564, 0.115339, 0.000386, -0.070747, -0.129092, 0.109078, -0.060430, -0.145636, 0.109115, -0.260570, -0.086609},
    {-0.003053, 0.011469, 0.033134, 0.090038, -0.293756, -0.176301, 0.098129, 0.056118, -0.088097, -0.203011, -0.194068, 0.094191, -0.197255, -0.213479, 0.080310, -0.033716, 0.119245, -0.224341, -0.409104, -0.068870, -0.151870, 0.090545, -0.194000, 0.031203, 0.092259, -0.063534, -0.167712, 0.045668, -0.225300, -0.279858, -0.289180, -0.115917, -0.058881, -0.201359, 0.086854, 0.101138, -0.222213, 0.078286, -0.094675, -0.049253, 0.120761, -0.272064, -0.233328, -0.224429, 0.058427, 0.087353, -0.167952, 0.048754, -0.158108, 0.111553, 0.024376, -0.072006, 0.027079, -0.008752, 0.105459, 0.108126, 0.049666, -0.006172, 0.045963, 0.062108, -0.123403, -0.155969, -0.214296, -0.215356},
    {0.114977, -0.286054, -0.231996, 0.076042, 0.148265, -0.386902, -0.034520, 0.084320, -0.123740, -0.349993, -0.251723, -0.222340, -0.068440, 0.082034, -0.374818, -0.064959, -0.206517, 0.116509, 0.155772, 0.150630, 0.018197, -0.164259, -0.155945, 0.075365, 0.099047, -0.160280, 0.074397, -0.047044, 0.086888, -0.176842, 0.087052, -0.272997, -0.026160, 0.039018, 0.090675, -0.275382, 0.093338, -0.213188, -0.147597, -0.105796, -0.139608, -0.323038, -0.131534, 0.092951, -0.258167, -0.176907, 0.064859, 0.000460, -0.298331, -0.151478, -0.355817, 0.109111, -0.185145, -0.322769, -0.262262, -0.247386, -0.175067, -0.291805, 0.086496, 0.123187, -0.350886, 0.004709, -0.249422, -0.239690},
    {0.109596, -0.125390, -0.344487, -0.380692, -0.077196, -0.113300, -0.122430, -0.221073, -0.138725, 0.072387, 0.157759, -0.213535, 0.075537, -0.033238, 0.002692, -0.212199, -0.042890, 0.024501, 0.011431, -0.045503, -0.109004, -0.053973, -0.037902, -0.111095, -0.261280, 0.068530, 0.129703, -0.183586, 0.082505, -0.105808, 0.053368, -0.173495, -0.241242, 0.088038, -0.330622, -0.127696, 0.108715, -0.140986, 0.038973, 0.091084, -0.087035, -0.085756, -0.128177, 0.002335, -0.076168, -0.206539, 0.107800, -0.175529, 0.087644, -0.463920, 0.065990, 0.128622, -0.275053, 0.110272, 0.109677, -0.055743, -0.007794, -0.192575, 0.096896, -0.207633, 0.086502, 0.068768, -0.143250, -0.110806},
    {-0.064362, -0.189077, 0.098209, 0.091029, -0.189466, -0.251102, -0.210447, 0.083086, -0.109787, -0.097771, -0.041100, 0.086859, -0.223013, 0.049673, -0.155090, -0.141784, 0.124262, -0.076454, 0.073654, 0.080885, -0.258575, 0.172622, -0.333417, -0.178425, 0.105604, -0.153535, -0.283271, -0.329902, -0.089119, -0.184803, 0.085701, -0.254927, 0.075970, -0.093860, -0.177020, -0.034280, 0.101206, 0.051877, -0.096663, 0.072577, -0.210425, 0.071581, -0.187853, -0.053271, 0.067501, -0.218447, -0.126577, 0.113423, -0.228882, 0.101938, 0.121752, -0.185477, -0.173805, -0.174283, 0.105091, -0.023063, 0.131757, -0.286987, -0.065307, -0.357130, -0.180550, 0.104593, 0.008000, -0.144898},
    {0.057058, 0.038314, -0.280394, 0.079595, 0.022818, 0.086225, 0.028898, -0.131388, 0.140079, 0.017107, -0.216875, -0.190021, -0.086305, 0.070561, -0.191390, -0.068761, -0.098540, 0.001285, -0.116341, -0.030551, 0.069963, -0.086830, -0.183226, 0.033785, -0.164378, -0.216090, -0.275994, 0.069120, 0.068941, 0.047826, -0.170720, 0.074811, -0.257108, -0.122730, 0.002844, -0.013623, 0.004951, 0.013455, 0.108295, 0.073088, -0.182216, 0.062133, -0.181230, -0.038774, -0.197806, -0.022900, 0.048807, 0.032325, -0.299256, -0.101184, -0.329433, -0.207630, -0.031404, -0.027197, 0.010265, 0.088758, 0.061581, 0.067111, 0.025277, -0.052229, 0.018412, -0.158172, -0.070540, 0.056488},
    {-0.250566, 0.103563, 0.061352, -0.360356, -0.163034, -0.115667, -0.129174, -0.223289, 0.050983, -0.108004, -0.212073, -0.042893, -0.350150, -0.083175, -0.220152, -0.208771, 0.117798, -0.221233, -0.435125, -0.285766, -0.131600, 0.099688, -0.143465, -0.289999, -0.139557, 0.115348, -0.205236, -0.367933, -0.230085, 0.097516, 0.107324, -0.009884, -0.203934, -0.252603, 0.081389, -0.287026, -0.245314, 0.077675, 0.095211, 0.095061, -0.417419, 0.065245, -0.161455, -0.119501, 0.134998, -0.000077, -0.300208, -0.133388, -0.120066, 0.098363, -0.033885, -0.083695, 0.154619, -0.106924, -0.267000, 0.108694, 0.077649, -0.249725, -0.330433, 0.100529, -0.178664, -0.737867, 0.103509, 0.011003},
    {0.128274, -0.090607, -0.251307, -0.005990, 0.094867, -0.021191, -0.084014, -0.295454, -0.149963, -0.202172, 0.129464, 0.042650, 0.096057, -0.268025, -0.305316, -0.167918, -0.201985, 0.107912, -0.077040, 0.136032, -0.279232, -0.190055, -0.332397, -0.219362, -0.052332, -0.338561, 0.062078, 0.105421, -0.094095, -0.152877, 0.035000, -0.014009, -0.130400, 0.035479, 0.060351, -0.201671, 0.121589, -0.128750, -0.127754, 0.066124, -0.160935, -0.094343, -0.071509, -0.307336, 0.052954, -0.164620, 0.117981, -0.042592, -0.241714, -0.068648, -0.168297, 0.062458, -0.068320, 0.069496, -0.104029, -0.103322, 0.124197, -0.343220, -0.334157, 0.123462, -0.043706, 0.049323, -0.191896, -0.037965},
    {-0.175599, 0.116251, -0.125277, -0.147676, 0.057239, -0.049150, 0.019442, -0.161913, -0.288459, 0.096612, -0.030779, -0.270411, -0.077190, -0.200483, 0.191963, -0.021879, -0.201958, -0.150280, -0.141929, -0.168593, -0.305609, -0.234845, -0.050685, -0.312885, -0.283856, -0.239311, -0.308249, -0.164672, -0.310195, 0.101905, 0.085620, -0.338260, -0.303120, -0.033962, 0.135856, -0.179472, 0.026005, 0.100333, 0.110396, 0.107973, 0.079697, -0.216358, -0.198782, 0.010421, -0.160070, -0.139770, 0.147305, -0.064420, -0.088702, -0.123424, -0.281830, -0.346059, -0.310397, -0.056241, -0.072533, 0.123118, -0.247293, -0.263012, 0.001179, 0.031329, 0.082958, -0.092005, 0.101720, 0.127974}
};

float b2[OUTPUT_DIM] = {0.232163, 0.094835, 0.057526, -0.298949, 0.084332, -0.271085, -0.094508, 0.158017, -0.124295, -0.264612, 0.255441, -0.166223, 0.000404, 0.047125, -0.230217, -0.052211, -0.167209, 0.406035, -0.052240, -0.124587, -0.055629, 0.046230, -0.095398, -0.034281, -0.111283, -0.270626, 0.195775, 0.121426, 0.219948, -0.182268, -0.135814, -0.118219, -0.074404, -0.328837, -0.025932, 0.317645, -0.030474, -0.125365, 0.051439, 0.064412, -0.342815, 0.219142, 0.027443, 0.150711, 0.203297, 0.044449, -0.029474, -0.058544, 0.046600};

